<?xml version="1.0"?>
<opencv_storage>
<cascade>
  <stageType>BOOST</stageType>
  <featureType>HAAR</featureType>
  <height>20</height>
  <width>20</width>
  <stageParams>
    <boostType>GAB</boostType>
    <minHitRate>9.9500000476837158e-01</minHitRate>
    <maxFalseAlarm>5.0000000000000000e-01</maxFalseAlarm>
    <weightTrimRate>9.4999999999999996e-01</weightTrimRate>
    <maxDepth>1</maxDepth>
    <maxWeakCount>100</maxWeakCount></stageParams>
  <featureParams>
    <maxCatCount>0</maxCatCount>
    <featSize>1</featSize>
    <mode>BASIC</mode></featureParams>
  <stageNum>5</stageNum>
  <stages>
    <!-- stage 0 -->
    <_>
      <maxWeakCount>2</maxWeakCount>
      <stageThreshold>-4.0235776454210281e-02</stageThreshold>
      <weakClassifiers>
        <_>
          <internalNodes>
            0 -1 0 -9.6315974369645119e-03</internalNodes>
          <leafValues>
            9.1031390428543091e-01 -9.7757393121719360e-01</leafValues></_>
        <_>
          <internalNodes>
            0 -1 2 -9.8407929763197899e-03</internalNodes>
          <leafValues>
            9.3733811378479004e-01 -9.1621172428131104e-01</leafValues></_></weakClassifiers></_>
    <!-- stage 1 -->
    <_>
      <maxWeakCount>3</maxWeakCount>
      <stageThreshold>-1.1616518497467041e+00</stageThreshold>
      <weakClassifiers>
        <_>
          <internalNodes>
            0 -1 6 1.0461010038852692e-02</internalNodes>
          <leafValues>
            -9.5866817235946655e-01 6.2259304523468018e-01</leafValues></_>
        <_>
          <internalNodes>
            0 -1 7 -4.7099436633288860e-03</internalNodes>
          <leafValues>
            6.3210403919219971e-01 -8.8311308622360229e-01</leafValues></_>
        <_>
          <internalNodes>
            0 -1 4 -6.8101957440376282e-03</internalNodes>
          <leafValues>
            6.8012946844100952e-01 -8.7203383445739746e-01</leafValues></_></weakClassifiers></_>
    <!-- stage 2 -->
    <_>
      <maxWeakCount>2</maxWeakCount>
      <stageThreshold>-3.3694297075271606e-01</stageThreshold>
      <weakClassifiers>
        <_>
          <internalNodes>
            0 -1 1 -2.3672016337513924e-02</internalNodes>
          <leafValues>
            7.1884983777999878e-01 -7.8125000000000000e-01</leafValues></_>
        <_>
          <internalNodes>
            0 -1 10 -1.5873921802267432e-04</internalNodes>
          <leafValues>
            4.4430702924728394e-01 -9.7743397951126099e-01</leafValues></_></weakClassifiers></_>
    <!-- stage 3 -->
    <_>
      <maxWeakCount>1</maxWeakCount>
      <stageThreshold>4.0805223584175110e-01</stageThreshold>
      <weakClassifiers>
        <_>
          <internalNodes>
            0 -1 5 -4.5976694673299789e-02</internalNodes>
          <leafValues>
            -9.9179208278656006e-01 4.0805223584175110e-01</leafValues></_></weakClassifiers></_>
    <!-- stage 4 -->
    <_>
      <maxWeakCount>3</maxWeakCount>
      <stageThreshold>-1.0895017385482788e+00</stageThreshold>
      <weakClassifiers>
        <_>
          <internalNodes>
            0 -1 8 -1.5698027564212680e-03</internalNodes>
          <leafValues>
            7.9029732942581177e-01 -8.4569734334945679e-01</leafValues></_>
        <_>
          <internalNodes>
            0 -1 9 1.1644854675978422e-03</internalNodes>
          <leafValues>
            -8.0756920576095581e-01 7.5263655185699463e-01</leafValues></_>
        <_>
          <internalNodes>
            0 -1 3 1.6800193116068840e-03</internalNodes>
          <leafValues>
            -8.8994348049163818e-01 5.6376487016677856e-01</leafValues></_></weakClassifiers></_></stages>
  <features>
    <_>
      <rects>
        <_>
          5 9 4 3 -1.</_>
        <_>
          7 9 2 3 2.</_></rects>
      <tilted>0</tilted></_>
    <_>
      <rects>
        <_>
          6 8 6 6 -1.</_>
        <_>
          6 8 3 3 2.</_>
        <_>
          9 11 3 3 2.</_></rects>
      <tilted>0</tilted></_>
    <_>
      <rects>
        <_>
          6 9 6 4 -1.</_>
        <_>
          6 9 3 2 2.</_>
        <_>
          9 11 3 2 2.</_></rects>
      <tilted>0</tilted></_>
    <_>
      <rects>
        <_>
          7 13 4 2 -1.</_>
        <_>
          7 14 4 1 2.</_></rects>
      <tilted>0</tilted></_>
    <_>
      <rects>
        <_>
          8 4 1 8 -1.</_>
        <_>
          8 8 1 4 2.</_></rects>
      <tilted>0</tilted></_>
    <_>
      <rects>
        <_>
          8 9 1 3 -1.</_>
        <_>
          8 10 1 1 2.</_></rects>
      <tilted>0</tilted></_>
    <_>
      <rects>
        <_>
          8 11 8 2 -1.</_>
        <_>
          12 11 4 2 2.</_></rects>
      <tilted>0</tilted></_>
    <_>
      <rects>
        <_>
          10 9 1 4 -1.</_>
        <_>
          10 11 1 2 2.</_></rects>
      <tilted>0</tilted></_>
    <_>
      <rects>
        <_>
          10 9 4 1 -1.</_>
        <_>
          12 9 2 1 2.</_></rects>
      <tilted>0</tilted></_>
    <_>
      <rects>
        <_>
          12 9 2 2 -1.</_>
        <_>
          13 9 1 2 2.</_></rects>
      <tilted>0</tilted></_>
    <_>
      <rects>
        <_>
          15 8 2 3 -1.</_>
        <_>
          16 8 1 3 2.</_></rects>
      <tilted>0</tilted></_></features></cascade>
</opencv_storage>
